Language model created by QuickLM on Thu Jun 30 09:14:13 EDT 2016
Copyright (c) 1996-2010 Carnegie Mellon University and Alexander I. Rudnicky

The model is in standard ARPA format, designed by Doug Paul while he was at MITRE.

The code that was used to produce this language model is available in Open Source.
Please visit http://www.speech.cs.cmu.edu/tools/ for more information

The (fixed) discount mass is 0.5. The backoffs are computed using the ratio method.
This model based on a corpus of 7 sentences and 13 words

\data\
ngram 1=13
ngram 2=18
ngram 3=13

\1-grams:
-0.8873 </s> -0.3010
-0.8873 <s> -0.2407
-1.7324 BACKWARD -0.2407
-1.7324 BROWSER -0.2407
-1.7324 E-MAIL -0.2407
-1.7324 FORWARD -0.2407
-1.7324 LAST -0.2846
-1.7324 MUSIC -0.2929
-1.7324 NEW -0.2929
-1.7324 NEXT -0.2846
-1.4314 OPEN -0.2846
-1.7324 PLAYER -0.2407
-1.4314 WINDOW -0.2407

\2-grams:
-1.1461 <s> BACKWARD 0.0000
-1.1461 <s> FORWARD 0.0000
-1.1461 <s> LAST 0.0000
-1.1461 <s> NEW 0.0000
-1.1461 <s> NEXT 0.0000
-0.8451 <s> OPEN 0.0000
-0.3010 BACKWARD </s> -0.3010
-0.3010 BROWSER </s> -0.3010
-0.3010 E-MAIL </s> -0.3010
-0.3010 FORWARD </s> -0.3010
-0.3010 LAST WINDOW 0.0000
-0.3010 MUSIC PLAYER 0.0000
-0.3010 NEW E-MAIL 0.0000
-0.3010 NEXT WINDOW 0.0000
-0.6021 OPEN BROWSER 0.0000
-0.6021 OPEN MUSIC 0.0000
-0.3010 PLAYER </s> -0.3010
-0.3010 WINDOW </s> -0.3010

\3-grams:
-0.3010 <s> BACKWARD </s>
-0.3010 <s> FORWARD </s>
-0.3010 <s> LAST WINDOW
-0.3010 <s> NEW E-MAIL
-0.3010 <s> NEXT WINDOW
-0.6021 <s> OPEN BROWSER
-0.6021 <s> OPEN MUSIC
-0.3010 LAST WINDOW </s>
-0.3010 MUSIC PLAYER </s>
-0.3010 NEW E-MAIL </s>
-0.3010 NEXT WINDOW </s>
-0.3010 OPEN BROWSER </s>
-0.3010 OPEN MUSIC PLAYER

\end\
